{
  "type": "NeuralNetwork",
  "sizes": [
    48,
    16,
    16,
    7
  ],
  "layers": [
    {
      "weights": [],
      "biases": []
    },
    {
      "weights": [
        [
          0.4048959016799927,
          0.507334291934967,
          0.48527398705482483,
          0.24816444516181946,
          0.18058361113071442,
          0.30023878812789917,
          0.22998079657554626,
          0.09801553934812546,
          0.07432824373245239,
          0.7395766377449036,
          0.07296517491340637,
          0.22048579156398773,
          -0.21852892637252808,
          0.033326536417007446,
          -0.02002337947487831,
          0.2319057583808899,
          -0.477053701877594,
          0.4251998960971832,
          0.15442271530628204,
          0.20606058835983276,
          -0.10995226353406906,
          0.18645048141479492,
          -0.07385008037090302,
          0.0879657119512558,
          0.027477014809846878,
          0.15748776495456696,
          -0.033574577420949936,
          0.0003004762402269989,
          -0.2586202919483185,
          -0.2541288435459137,
          -0.36504489183425903,
          -0.17614653706550598,
          -0.20724403858184814,
          -0.08633791655302048,
          0.1412428766489029,
          -0.007941320538520813,
          -0.23103757202625275,
          -0.7025392651557922,
          -0.9002123475074768,
          -0.7540234327316284,
          -0.3811085820198059,
          -0.2920664846897125,
          -0.0823412612080574,
          1.2933176755905151,
          0.05287110060453415,
          0.15154621005058289,
          -0.05602589249610901,
          -0.0034486104268580675
        ],
        [
          -0.415926456451416,
          -0.34267887473106384,
          -0.2811013162136078,
          -0.4918071925640106,
          -0.22214782238006592,
          -0.2618713974952698,
          -0.3098848760128021,
          -0.23611536622047424,
          0.438327819108963,
          -1.113855004310608,
          -0.10749354213476181,
          0.09302917867898941,
          0.2574695944786072,
          0.3727756440639496,
          0.20889535546302795,
          -0.3063143789768219,
          0.5808247923851013,
          -0.302242249250412,
          -0.5929160118103027,
          -0.29653581976890564,
          -0.24119558930397034,
          0.054491594433784485,
          -0.24870795011520386,
          -0.12901180982589722,
          -0.0813821405172348,
          -0.17810693383216858,
          -0.24042470753192902,
          -0.03075239062309265,
          -0.23309394717216492,
          -0.03090738318860531,
          -0.5937055349349976,
          -0.14924034476280212,
          0.1132335215806961,
          0.03790109232068062,
          -0.24119935929775238,
          -0.09206531196832657,
          0.37269747257232666,
          0.40407708287239075,
          0.7757220268249512,
          0.6327363848686218,
          0.2512447237968445,
          0.2653462290763855,
          0.35884231328964233,
          1.0049418210983276,
          0.20049607753753662,
          -0.005826007574796677,
          0.08453870564699173,
          -0.06489098817110062
        ],
        [
          0.0015101045137271285,
          -0.04169154912233353,
          0.024360258132219315,
          -0.12017976492643356,
          0.16023047268390656,
          -0.1815219521522522,
          -0.18438570201396942,
          -0.17143239080905914,
          -0.005183306057006121,
          0.37918221950531006,
          -0.16798506677150726,
          -0.018196381628513336,
          -0.1487625688314438,
          0.015085641294717789,
          -0.2415737807750702,
          -0.2882668375968933,
          0.14376458525657654,
          0.16150228679180145,
          0.31565919518470764,
          -0.005714967846870422,
          0.001726018264889717,
          0.22812171280384064,
          0.0018486104672774673,
          0.03424578905105591,
          0.0724928006529808,
          0.07482782006263733,
          -0.030657365918159485,
          -0.02287692204117775,
          -0.026369472965598106,
          -0.011628550477325916,
          -0.30459126830101013,
          -0.07639152556657791,
          -0.1910557746887207,
          0.018574701622128487,
          0.036052946001291275,
          -0.16147904098033905,
          -0.04002484306693077,
          0.401076078414917,
          0.29055389761924744,
          0.07578270882368088,
          0.17289432883262634,
          -0.11929139494895935,
          0.2132396548986435,
          -1.3287122249603271,
          -0.19602325558662415,
          0.016792353242635727,
          0.06937448680400848,
          -0.09048071503639221
        ],
        [
          -0.13174137473106384,
          -0.32147833704948425,
          -0.2520725727081299,
          -0.027113091200590134,
          -0.2665747106075287,
          0.017906703054904938,
          -0.19894994795322418,
          -0.07634077221155167,
          0.07760687172412872,
          -1.0955616235733032,
          -0.002361874794587493,
          -0.03305637463927269,
          0.04227767139673233,
          0.1666329801082611,
          0.16570313274860382,
          -0.21338854730129242,
          0.49447739124298096,
          -0.3688890337944031,
          -0.02351284585893154,
          0.08853314816951752,
          0.05931466445326805,
          0.0485357865691185,
          -0.044146887958049774,
          -0.11777991056442261,
          -0.04095562919974327,
          0.051841702312231064,
          0.07989627867937088,
          -0.20166683197021484,
          0.042073823511600494,
          -0.24465946853160858,
          -0.27783963084220886,
          0.07280629873275757,
          -0.008110638707876205,
          -0.27387475967407227,
          0.01292057242244482,
          -0.10889187455177307,
          0.2796359062194824,
          0.44334736466407776,
          0.6209704279899597,
          0.6548322439193726,
          0.26824307441711426,
          0.31900015473365784,
          0.01419344823807478,
          0.9756719470024109,
          0.27033817768096924,
          0.040027063339948654,
          -0.03519187122583389,
          0.024398772045969963
        ],
        [
          -1.2252919673919678,
          -1.1718075275421143,
          -1.2661715745925903,
          -1.0350934267044067,
          -0.3489459455013275,
          -0.37124767899513245,
          -0.2275536209344864,
          -0.44496235251426697,
          1.8821755647659302,
          0.2514898478984833,
          0.20035922527313232,
          0.06692945212125778,
          0.3263085186481476,
          0.689961850643158,
          0.9831570386886597,
          0.32014524936676025,
          1.2382265329360962,
          -0.8239189982414246,
          -0.7907034754753113,
          -0.08858538419008255,
          0.039496663957834244,
          -0.3332279920578003,
          -0.22022373974323273,
          -0.11857915669679642,
          -0.15284593403339386,
          -0.24827958643436432,
          -0.21136775612831116,
          -0.26015976071357727,
          0.4205670952796936,
          0.28224632143974304,
          0.7826210260391235,
          0.11194658279418945,
          0.37008777260780334,
          0.2873656153678894,
          0.023968175053596497,
          0.13868704438209534,
          0.3246847689151764,
          0.4484928548336029,
          0.5260927081108093,
          0.5767525434494019,
          0.21334171295166016,
          0.22298462688922882,
          0.15557965636253357,
          0.8965553045272827,
          0.37570706009864807,
          0.11330335587263107,
          -0.02424466423690319,
          0.11773542314767838
        ],
        [
          0.09524219483137131,
          0.0909460037946701,
          -0.09496995806694031,
          -0.05149064585566521,
          -0.1365165263414383,
          0.1433502733707428,
          -0.07729180157184601,
          0.10514572262763977,
          -0.38064706325531006,
          1.695236325263977,
          -0.06998702883720398,
          0.20943723618984222,
          0.04401073604822159,
          -0.15091100335121155,
          -0.27586469054222107,
          0.06740902364253998,
          -0.47370487451553345,
          0.6432207822799683,
          0.6680052876472473,
          0.23187236487865448,
          0.05373835563659668,
          0.03878788650035858,
          0.3241261839866638,
          0.3095196783542633,
          0.01646248623728752,
          0.20905984938144684,
          0.058365531265735626,
          0.23739220201969147,
          -0.16117186844348907,
          -0.15029102563858032,
          0.1885748952627182,
          -0.10917879641056061,
          -0.026111287996172905,
          0.017580954357981682,
          -0.11437560617923737,
          0.052550651133060455,
          -0.17299550771713257,
          -0.45440420508384705,
          -0.8191847205162048,
          -0.6631948947906494,
          -0.36199015378952026,
          -0.16843493282794952,
          -0.3684384524822235,
          -0.6810798645019531,
          -0.2441173642873764,
          0.12221235036849976,
          0.0223193671554327,
          -0.161362886428833
        ],
        [
          0.6986833214759827,
          0.6647329330444336,
          0.6429596543312073,
          0.31739991903305054,
          0.3183445632457733,
          0.11230011284351349,
          -0.09288725256919861,
          0.08115631341934204,
          -0.9733874201774597,
          -0.7875834107398987,
          0.008886421099305153,
          0.03277214244008064,
          -0.1819114238023758,
          -0.2943131625652313,
          -0.5191890001296997,
          0.12969337403774261,
          -0.7112470865249634,
          0.10351143032312393,
          -0.007136938627809286,
          0.0755009800195694,
          -0.0421222485601902,
          0.11733600497245789,
          0.14872857928276062,
          0.2117512971162796,
          0.054793309420347214,
          0.12274781614542007,
          -0.0610886886715889,
          -0.14098100364208221,
          0.09069934487342834,
          -0.0820721685886383,
          -0.2138037532567978,
          -0.2551130950450897,
          -0.2410949468612671,
          0.08468607813119888,
          0.1541261374950409,
          0.047167133539915085,
          -0.03227824345231056,
          -0.5117440819740295,
          -0.05110347643494606,
          -0.17473359405994415,
          -0.05106133967638016,
          -0.12435122579336166,
          -0.17972591519355774,
          0.40530386567115784,
          -0.013361060991883278,
          0.1658894568681717,
          -0.05791443586349487,
          0.0061447215266525745
        ],
        [
          -0.04487135261297226,
          0.011520687490701675,
          0.054889976978302,
          0.14351391792297363,
          -0.18240886926651,
          -0.15890085697174072,
          0.2837207615375519,
          -0.1041080504655838,
          -0.14305362105369568,
          2.2046101093292236,
          0.21628913283348083,
          0.06979850679636002,
          0.09100770205259323,
          -0.017023958265781403,
          0.10190046578645706,
          0.5036296844482422,
          -0.46867835521698,
          0.5622743368148804,
          0.45990902185440063,
          0.18394197523593903,
          0.2518024146556854,
          0.23865120112895966,
          0.3025014400482178,
          0.00959778018295765,
          0.25668513774871826,
          0.03695984184741974,
          0.09545672684907913,
          0.2415388971567154,
          0.20789821445941925,
          0.4057924151420593,
          0.9977906942367554,
          0.16189070045948029,
          0.157096728682518,
          0.4063663184642792,
          0.14534065127372742,
          0.22337280213832855,
          -0.5154547691345215,
          -0.4911551773548126,
          -0.925383985042572,
          -0.6248294115066528,
          -0.4286471903324127,
          -0.10094369947910309,
          -0.2090264856815338,
          -1.7526377439498901,
          -0.13152600824832916,
          0.016057200729846954,
          -0.07524848729372025,
          0.12542997300624847
        ],
        [
          0.857303261756897,
          0.8625765442848206,
          0.740202784538269,
          0.7276289463043213,
          0.32151541113853455,
          0.17645281553268433,
          -0.19997084140777588,
          0.3269583284854889,
          -2.4335403442382812,
          -0.8177540898323059,
          -0.3512931764125824,
          -0.20268237590789795,
          0.17509259283542633,
          -0.9781224131584167,
          -1.084934115409851,
          0.03523265942931175,
          -1.2728644609451294,
          0.0876702219247818,
          0.12176113575696945,
          0.10191039741039276,
          0.06226970627903938,
          -0.006195968482643366,
          -0.0629582330584526,
          0.1338476538658142,
          0.12339591979980469,
          -0.07586649060249329,
          0.05797036364674568,
          0.23598408699035645,
          0.059240590780973434,
          0.29476577043533325,
          0.690216600894928,
          0.08617070317268372,
          0.02999088540673256,
          0.0724579319357872,
          0.011627924628555775,
          0.08583705127239227,
          0.3952760100364685,
          -0.16819480061531067,
          0.8433438539505005,
          0.4840717017650604,
          -0.022697919979691505,
          0.29510733485221863,
          0.10658431053161621,
          -1.467607855796814,
          -0.6243273615837097,
          0.11663444340229034,
          -0.1688019186258316,
          0.04372578486800194
        ],
        [
          0.6618553400039673,
          0.6303231120109558,
          0.5022746920585632,
          0.4940577745437622,
          0.37169361114501953,
          0.1086253821849823,
          0.2161257266998291,
          0.07818174362182617,
          -0.8979306817054749,
          0.3324138820171356,
          -0.14088742434978485,
          -0.09193355590105057,
          -0.16328692436218262,
          -0.5064209699630737,
          -0.281508207321167,
          0.3597361743450165,
          -0.6239080429077148,
          -0.0921856239438057,
          0.07342725992202759,
          -0.07031065225601196,
          0.1712653785943985,
          -0.07144689559936523,
          0.140631765127182,
          -0.09817594289779663,
          0.1113525852560997,
          -0.0029895994812250137,
          -0.2022807002067566,
          -0.10211066901683807,
          -0.07218417525291443,
          -0.016540691256523132,
          0.18726207315921783,
          -0.13414517045021057,
          0.12185736000537872,
          0.15967005491256714,
          0.034764163196086884,
          0.20204287767410278,
          -0.2235136777162552,
          -0.41209933161735535,
          -0.5754556059837341,
          -0.6070917844772339,
          -0.33096206188201904,
          -0.3699251711368561,
          -0.08959446847438812,
          -0.6003495454788208,
          -0.11619174480438232,
          0.05896233767271042,
          0.03349447250366211,
          -0.1636333465576172
        ],
        [
          0.2892155349254608,
          0.030406558886170387,
          0.3917195200920105,
          0.2160232812166214,
          0.1916152536869049,
          0.04659974202513695,
          -0.25755149126052856,
          0.08206690102815628,
          -1.144399881362915,
          -1.135447382926941,
          -0.23289424180984497,
          -0.1585112065076828,
          -0.09634055942296982,
          -0.48135805130004883,
          -0.3492840528488159,
          0.20547537505626678,
          -0.34984880685806274,
          0.06927245855331421,
          -0.050802480429410934,
          0.00024128258519340307,
          -0.142552450299263,
          0.03369588404893875,
          -0.11374372988939285,
          -0.0644121989607811,
          -0.10720787942409515,
          0.0712687149643898,
          -0.14641828835010529,
          0.10282370448112488,
          0.22620506584644318,
          0.09832337498664856,
          0.05520417168736458,
          0.15059514343738556,
          0.14790086448192596,
          0.13995231688022614,
          -0.1559634506702423,
          -0.0774792805314064,
          0.3732878267765045,
          0.06519317626953125,
          0.7995498180389404,
          0.4826972782611847,
          0.29167845845222473,
          0.3699673116207123,
          0.16406285762786865,
          -0.5211157202720642,
          -0.14586719870567322,
          0.11925017833709717,
          0.020451288670301437,
          -0.15478481352329254
        ],
        [
          -1.2218034267425537,
          -1.1112538576126099,
          -1.1865869760513306,
          -0.9223587512969971,
          -0.35618892312049866,
          -0.41078025102615356,
          -0.17964528501033783,
          -0.457096129655838,
          0.8724581003189087,
          1.7438615560531616,
          -0.06701143085956573,
          -0.20274829864501953,
          0.34693971276283264,
          0.14071132242679596,
          0.5500278472900391,
          -0.36818915605545044,
          0.9207899570465088,
          0.5960410237312317,
          0.5771265029907227,
          0.3154088854789734,
          0.26649680733680725,
          0.055544037371873856,
          0.2218528836965561,
          0.30141961574554443,
          0.15547415614128113,
          0.28519177436828613,
          0.21694086492061615,
          0.39680013060569763,
          0.2194208800792694,
          0.18727917969226837,
          0.7426003813743591,
          0.03841998800635338,
          0.2201230823993683,
          0.3281693458557129,
          -0.005616575013846159,
          -0.15174297988414764,
          0.23156005144119263,
          0.9681888222694397,
          0.6341889500617981,
          0.5670585632324219,
          0.5809189677238464,
          0.16244733333587646,
          0.1439271867275238,
          -2.7212090492248535,
          -0.14029425382614136,
          -0.40653955936431885,
          0.13267958164215088,
          0.27446189522743225
        ],
        [
          0.39684757590293884,
          0.13300497829914093,
          0.20065826177597046,
          0.34945225715637207,
          0.2555040121078491,
          0.21477936208248138,
          0.29561376571655273,
          0.06375236064195633,
          0.30466559529304504,
          -1.2633929252624512,
          0.08447479456663132,
          -0.0326305516064167,
          -0.18300758302211761,
          0.2838885486125946,
          0.13830828666687012,
          -0.2027866691350937,
          0.1615990251302719,
          -0.8947501182556152,
          -0.7810434103012085,
          -0.20127369463443756,
          -0.15193001925945282,
          -0.27948659658432007,
          -0.33305495977401733,
          -0.17654038965702057,
          -0.042450278997421265,
          -0.3034069836139679,
          -0.10978887230157852,
          -0.2983703911304474,
          0.11196891963481903,
          0.04783708602190018,
          -0.3644554913043976,
          -0.18190914392471313,
          0.018823212012648582,
          -0.26828786730766296,
          -0.07695508003234863,
          0.18531236052513123,
          0.0685923621058464,
          0.04301263391971588,
          -0.18851090967655182,
          0.03178400918841362,
          -0.10722654312849045,
          -0.06373541057109833,
          0.044183116406202316,
          1.6886489391326904,
          0.3316366970539093,
          -0.01014876738190651,
          0.1921321153640747,
          0.0972043052315712
        ],
        [
          0.6574775576591492,
          0.5577132105827332,
          0.46050113439559937,
          0.4475541412830353,
          0.32436802983283997,
          0.38648325204849243,
          0.17791025340557098,
          0.33451730012893677,
          -0.28400248289108276,
          -1.5309542417526245,
          0.08827909827232361,
          -0.17543870210647583,
          -0.14862075448036194,
          -0.07998573780059814,
          0.030875658616423607,
          -0.13998068869113922,
          -0.31789159774780273,
          -0.6754615902900696,
          -0.7720856070518494,
          -0.10021959245204926,
          -0.025446049869060516,
          -0.1823786497116089,
          -0.18250471353530884,
          -0.12062174826860428,
          -0.29475852847099304,
          -0.23434938490390778,
          -0.010517038404941559,
          -0.2687339186668396,
          -0.15391187369823456,
          -0.24786625802516937,
          -0.6163243651390076,
          -0.19207750260829926,
          -0.1059294268488884,
          -0.2582255005836487,
          0.12332508713006973,
          -0.1542951613664627,
          0.29890620708465576,
          -0.09493690729141235,
          0.2516000270843506,
          0.028615102171897888,
          0.11127538979053497,
          -0.11293024569749832,
          -0.08751571923494339,
          1.7307502031326294,
          0.13593284785747528,
          -0.01384726632386446,
          -0.2985222339630127,
          -0.13453486561775208
        ],
        [
          -0.38452276587486267,
          -0.48631763458251953,
          -0.4122800827026367,
          -0.45226603746414185,
          -0.20573075115680695,
          -0.20674575865268707,
          -0.3891339600086212,
          -0.06633371114730835,
          -0.8982285261154175,
          -0.5498990416526794,
          -0.014157568104565144,
          -0.26117807626724243,
          0.10694511979818344,
          -0.6151153445243835,
          -0.21854394674301147,
          -0.4258897602558136,
          0.4271092116832733,
          0.9181898236274719,
          0.8449643850326538,
          0.015759404748678207,
          0.0030479005072265863,
          0.332830011844635,
          0.07723431289196014,
          0.20122726261615753,
          0.3752634823322296,
          0.0611753910779953,
          0.20249240100383759,
          0.4076053500175476,
          -0.0164751298725605,
          0.08061578869819641,
          -0.1561894416809082,
          0.11736267805099487,
          0.18273238837718964,
          0.11832290142774582,
          0.04078902304172516,
          0.06443842500448227,
          0.6601292490959167,
          0.5835604667663574,
          0.8735400438308716,
          0.8121763467788696,
          0.5639563202857971,
          0.3507165312767029,
          0.3468184471130371,
          -1.4799730777740479,
          -0.2516363561153412,
          -0.10828676074743271,
          0.238369420170784,
          0.26480552554130554
        ],
        [
          0.12775243818759918,
          0.0516764335334301,
          0.033845141530036926,
          0.0416814461350441,
          -0.016462570056319237,
          -0.08059930801391602,
          -0.1283157765865326,
          0.02940751425921917,
          -0.6784818768501282,
          1.2951045036315918,
          -0.10620347410440445,
          0.041721731424331665,
          0.12894457578659058,
          -0.3572373688220978,
          -0.1608494222164154,
          0.4523460268974304,
          -0.7283069491386414,
          0.29015883803367615,
          0.4198829233646393,
          0.23558446764945984,
          -0.08534117788076401,
          0.1584411859512329,
          0.17363643646240234,
          0.11260707676410675,
          0.0683312863111496,
          0.06711214780807495,
          -0.045719120651483536,
          0.3229345381259918,
          0.38064441084861755,
          0.11905587464570999,
          1.0034228563308716,
          0.2591904401779175,
          0.18069323897361755,
          0.40685123205184937,
          0.2504141330718994,
          0.23629119992256165,
          -0.04502636939287186,
          -0.2658846080303192,
          -0.2991732656955719,
          -0.3306284546852112,
          -0.22235621511936188,
          -0.13988900184631348,
          0.07994375377893448,
          -1.3445488214492798,
          -0.31149184703826904,
          -0.06408099830150604,
          -0.19560027122497559,
          -0.11724616587162018
        ]
      ],
      "biases": [
        0.08135625720024109,
        0.07900547236204147,
        0.019716795533895493,
        -0.0802779346704483,
        -0.2098056674003601,
        -0.3689037263393402,
        0.3190811276435852,
        -0.4136223793029785,
        0.8708117008209229,
        0.12711139023303986,
        0.2465851604938507,
        -0.40462151169776917,
        0.41133517026901245,
        0.40809130668640137,
        -0.013286247849464417,
        -0.11677748709917068
      ]
    },
    {
      "weights": [
        [
          1.594463586807251,
          -0.6967378258705139,
          -0.11325611919164658,
          -0.29181650280952454,
          -0.5897089838981628,
          1.1287167072296143,
          0.23147420585155487,
          1.0770442485809326,
          -0.506157398223877,
          0.8324131965637207,
          -0.7649483680725098,
          -0.9298679232597351,
          0.6886961460113525,
          0.3452993333339691,
          -1.2948179244995117,
          0.30311307311058044
        ],
        [
          -0.5523303151130676,
          0.7942469120025635,
          -0.17068986594676971,
          0.5594658851623535,
          1.6742275953292847,
          -1.0740220546722412,
          -0.13745754957199097,
          -0.7958077788352966,
          -0.009468398988246918,
          -0.3646508455276489,
          0.2835378348827362,
          0.2707666754722595,
          0.9718974828720093,
          0.5769442915916443,
          0.027728958055377007,
          -0.19683422148227692
        ],
        [
          -0.023859582841396332,
          0.9945038557052612,
          -0.13769301772117615,
          1.147709608078003,
          0.4458622634410858,
          -0.9818128347396851,
          0.05678407475352287,
          -1.874179720878601,
          -0.6436035633087158,
          -0.6781307458877563,
          0.23370704054832458,
          -0.7216495275497437,
          1.4233002662658691,
          1.1399643421173096,
          -0.059496521949768066,
          -1.3983027935028076
        ],
        [
          0.36915990710258484,
          -0.7296946048736572,
          0.19596557319164276,
          -0.5699485540390015,
          0.24087515473365784,
          1.2216821908950806,
          -0.8879680037498474,
          1.3272082805633545,
          -1.4889161586761475,
          -0.5982069373130798,
          -1.2683981657028198,
          1.7354680299758911,
          -1.5935384035110474,
          -1.7620046138763428,
          0.07761678099632263,
          0.42628049850463867
        ],
        [
          -0.2437850534915924,
          -1.0434167385101318,
          0.2866227924823761,
          -0.7021774053573608,
          -1.7287241220474243,
          0.36235812306404114,
          0.33986642956733704,
          0.7489748001098633,
          1.4810199737548828,
          0.6248655319213867,
          0.4919035732746124,
          -0.29059484601020813,
          -0.829833447933197,
          -0.37910646200180054,
          0.7024202942848206,
          0.4978584349155426
        ],
        [
          -0.10940296947956085,
          0.8362953662872314,
          0.02432127669453621,
          0.6941588521003723,
          -0.37589403986930847,
          -0.8918583989143372,
          0.2413720190525055,
          -1.5598903894424438,
          -0.02742440439760685,
          -0.31332099437713623,
          0.5510395169258118,
          -0.9162787199020386,
          1.0066819190979004,
          1.2017630338668823,
          0.11707101762294769,
          -1.0827032327651978
        ],
        [
          0.5285288095474243,
          0.4799945056438446,
          -0.9173100590705872,
          0.5598627328872681,
          0.19166801869869232,
          -0.27599477767944336,
          0.10878460854291916,
          -0.8911557197570801,
          -1.0271978378295898,
          -0.46422070264816284,
          -0.3029678165912628,
          -1.0146368741989136,
          1.0161283016204834,
          0.6207456588745117,
          -0.8752383589744568,
          -0.8792258501052856
        ],
        [
          0.22927385568618774,
          -1.3848519325256348,
          -0.0877097100019455,
          -1.0465599298477173,
          -0.07113682478666306,
          1.1155246496200562,
          -0.03783564642071724,
          2.073157548904419,
          0.2213895469903946,
          0.6939480900764465,
          -0.29050639271736145,
          0.4901248812675476,
          -0.9135729074478149,
          -1.2328180074691772,
          -0.63832688331604,
          1.5297653675079346
        ],
        [
          0.2086142748594284,
          0.20185555517673492,
          -0.26170337200164795,
          -0.07829704135656357,
          0.16967807710170746,
          -0.15630583465099335,
          -0.0290849432349205,
          0.0727277398109436,
          0.33272114396095276,
          -0.04187443479895592,
          0.25163862109184265,
          -0.49244001507759094,
          0.22241942584514618,
          0.3489270806312561,
          -0.5209426283836365,
          -0.058304402977228165
        ],
        [
          1.1986443996429443,
          0.19647473096847534,
          -0.7215023636817932,
          0.09826897829771042,
          -0.9592518210411072,
          -0.0927078127861023,
          0.8374085426330566,
          -0.9213131070137024,
          -0.1925581991672516,
          0.43171992897987366,
          -0.46343734860420227,
          -2.538327932357788,
          1.1353927850723267,
          1.4927204847335815,
          -1.6374343633651733,
          -0.6313294172286987
        ],
        [
          -0.21988976001739502,
          -0.606631338596344,
          0.26211756467819214,
          -0.127742737531662,
          -1.9400020837783813,
          0.35847997665405273,
          0.7255827784538269,
          -0.20263144373893738,
          2.582139492034912,
          0.3673463761806488,
          1.027640461921692,
          -0.23995809257030487,
          -1.2399852275848389,
          -0.6335127353668213,
          1.6163064241409302,
          0.6652827858924866
        ],
        [
          0.9079013466835022,
          -1.1676452159881592,
          0.12640975415706635,
          -0.8037686347961426,
          -2.8016340732574463,
          0.5061120390892029,
          0.9877890348434448,
          0.17266178131103516,
          1.1590368747711182,
          0.8337634801864624,
          0.10556503385305405,
          -1.8550422191619873,
          -0.2689383924007416,
          0.3083485960960388,
          -0.3331637680530548,
          0.08503435552120209
        ],
        [
          0.18823544681072235,
          0.22297191619873047,
          0.36888113617897034,
          -0.056181613355875015,
          0.9137293100357056,
          0.25730305910110474,
          -0.8350459933280945,
          0.2181098610162735,
          -2.1875340938568115,
          -0.545607328414917,
          -0.9360301494598389,
          1.6683846712112427,
          -0.3514679968357086,
          -0.7883325219154358,
          0.2286863476037979,
          -0.506825864315033
        ],
        [
          0.551577091217041,
          0.008958819322288036,
          -0.4701377749443054,
          -0.13599459826946259,
          0.07096792012453079,
          -0.055824220180511475,
          0.07634630054235458,
          0.30616894364356995,
          0.11573246121406555,
          0.016544030979275703,
          -0.14814017713069916,
          -0.7304865121841431,
          0.37121063470840454,
          0.17365707457065582,
          -0.8121462464332581,
          0.05616769194602966
        ],
        [
          -0.6404521465301514,
          0.12058150768280029,
          0.43310582637786865,
          -0.38291504979133606,
          1.6879777908325195,
          -0.4585193991661072,
          -1.2149484157562256,
          0.18253245949745178,
          -2.261551856994629,
          -0.4416761100292206,
          -0.8058724999427795,
          1.8906147480010986,
          0.08904572576284409,
          -0.5884926319122314,
          -0.5943819880485535,
          -0.42378664016723633
        ],
        [
          -0.7050022482872009,
          0.3321646749973297,
          0.1986244022846222,
          0.13486061990261078,
          0.9174391627311707,
          0.2533920407295227,
          -0.6721588373184204,
          0.06300924718379974,
          -0.7417040467262268,
          -0.8668901920318604,
          -0.025960421189665794,
          2.164989471435547,
          -0.7659440040588379,
          -1.0719372034072876,
          1.0944688320159912,
          -0.08903992921113968
        ]
      ],
      "biases": [
        0.08438637852668762,
        0.42097368836402893,
        0.19684335589408875,
        -0.6429456472396851,
        -0.10034897178411484,
        0.08516192436218262,
        -0.20867659151554108,
        0.07594701647758484,
        -0.12166202068328857,
        0.22144246101379395,
        -0.3619033098220825,
        -0.12031780183315277,
        0.07805919647216797,
        0.2046429067850113,
        -0.17372283339500427,
        -0.08922000974416733
      ]
    },
    {
      "weights": [
        [
          0.6947137117385864,
          -1.1899117231369019,
          -0.6819642782211304,
          -2.4023425579071045,
          1.1277270317077637,
          0.26720908284187317,
          -0.7185494899749756,
          -0.47083738446235657,
          -0.13648095726966858,
          0.8999475240707397,
          0.8986582159996033,
          3.0710768699645996,
          -2.3628523349761963,
          0.005010461434721947,
          -2.6131978034973145,
          -3.541572093963623
        ],
        [
          0.3323700726032257,
          -0.24878758192062378,
          -2.463993549346924,
          1.7042285203933716,
          -1.6026957035064697,
          -2.050499200820923,
          -1.1929974555969238,
          1.4203248023986816,
          -0.26451513171195984,
          -0.8100372552871704,
          -2.9838218688964844,
          -1.9166256189346313,
          0.7592964768409729,
          -0.015287569724023342,
          1.5405586957931519,
          0.09829925000667572
        ],
        [
          -0.5341691970825195,
          -2.472008466720581,
          -2.027709484100342,
          2.2392923831939697,
          1.3441742658615112,
          -2.093097448348999,
          -1.2908787727355957,
          0.5785186290740967,
          -1.1633378267288208,
          -2.166994094848633,
          2.001821756362915,
          -0.5984116196632385,
          -0.38870513439178467,
          -1.0202003717422485,
          -1.5891867876052856,
          0.4279968738555908
        ],
        [
          -0.36643996834754944,
          1.047329306602478,
          -1.7814841270446777,
          -1.8085702657699585,
          0.36439380049705505,
          -1.2766464948654175,
          -0.6721391081809998,
          1.8839987516403198,
          0.1920880675315857,
          -1.4850350618362427,
          0.4668883979320526,
          -1.2884935140609741,
          -1.4672698974609375,
          0.3670247793197632,
          -1.0986324548721313,
          -0.3731521964073181
        ],
        [
          -2.669671058654785,
          1.2305920124053955,
          0.19285915791988373,
          -1.9170066118240356,
          -0.1526472121477127,
          1.005625605583191,
          -1.321476697921753,
          -1.5600906610488892,
          0.020754920318722725,
          -1.6364203691482544,
          1.395354151725769,
          -1.6327893733978271,
          -1.7869080305099487,
          -0.6186268925666809,
          -1.713196039199829,
          0.5567871928215027
        ],
        [
          0.27080318331718445,
          0.02982208877801895,
          1.3552665710449219,
          -2.2223119735717773,
          -2.4556219577789307,
          0.6377508640289307,
          1.607072353363037,
          -2.315319776535034,
          -0.14602255821228027,
          2.2553367614746094,
          -2.3550825119018555,
          -0.6421491503715515,
          -0.6852639317512512,
          0.22359412908554077,
          -1.1194372177124023,
          -1.6200639009475708
        ],
        [
          -2.0044169425964355,
          0.7441366910934448,
          0.8341853022575378,
          -0.8886255025863647,
          -2.0101206302642822,
          0.11892620474100113,
          -0.6644928455352783,
          -2.191532850265503,
          -0.8718112707138062,
          -2.228595495223999,
          -2.3427693843841553,
          -1.9118152856826782,
          1.471091389656067,
          -1.145039677619934,
          2.0761120319366455,
          1.3095697164535522
        ]
      ],
      "biases": [
        -0.8701958656311035,
        -0.788439929485321,
        -1.3176627159118652,
        -0.4394802451133728,
        -0.01670839637517929,
        -1.2192614078521729,
        -1.0850627422332764
      ]
    }
  ],
  "inputLookup": {
    "hello": 0,
    "hi": 1,
    "hey": 2,
    "good": 3,
    "morning": 4,
    "evening": 5,
    "jarvis": 6,
    "there": 7,
    "open": 8,
    "youtube": 9,
    "can": 10,
    "you": 11,
    "please": 12,
    "go": 13,
    "to": 14,
    "the": 15,
    "website": 16,
    "search": 17,
    "for": 18,
    "songs": 19,
    "coding": 20,
    "tutorial": 21,
    "find": 22,
    "video": 23,
    "music": 24,
    "funny": 25,
    "cats": 26,
    "on": 27,
    "what": 28,
    "is": 29,
    "time": 30,
    "tell": 31,
    "me": 32,
    "current": 33,
    "it": 34,
    "now": 35,
    "take": 36,
    "a": 37,
    "screenshot": 38,
    "capture": 39,
    "screen": 40,
    "my": 41,
    "desktop": 42,
    "googlecom": 43,
    "visit": 44,
    "this": 45,
    "i": 46,
    "want": 47
  },
  "inputLookupLength": 48,
  "outputLookup": {
    "greeting": 0,
    "open_youtube": 1,
    "search_youtube": 2,
    "tell_time": 3,
    "take_screenshot": 4,
    "open_website": 5,
    "ask_which_website": 6
  },
  "outputLookupLength": 7,
  "options": {
    "inputSize": 0,
    "outputSize": 0,
    "binaryThresh": 0.5,
    "hiddenLayers": [
      16,
      16
    ]
  },
  "trainOpts": {
    "activation": "sigmoid",
    "iterations": 5000,
    "errorThresh": 0.005,
    "log": true,
    "logPeriod": 500,
    "leakyReluAlpha": 0.01,
    "learningRate": 0.3,
    "momentum": 0.1,
    "callbackPeriod": 10,
    "timeout": "Infinity",
    "beta1": 0.9,
    "beta2": 0.999,
    "epsilon": 1e-8
  }
}